digraph Tree {
node [shape=box] ;
0 [label="device_count <= 1.5\ngini = 0.5\nsamples = 22641\nvalue = [11323, 11318]"] ;
1 [label="duration <= 27.811\ngini = 0.358\nsamples = 13791\nvalue = [10571, 3220]"] ;
0 -> 1 [labeldistance=2.5, labelangle=45, headlabel="True"] ;
13 [label="gini = 0.335\nsamples = 3177\nvalue = [2500, 677]"] ;
1 -> 13 ;
14 [label="duration <= 27.928\ngini = 0.364\nsamples = 10614\nvalue = [8071, 2543]"] ;
1 -> 14 ;
15 [label="gini = 0.49\nsamples = 14\nvalue = [6, 8]"] ;
14 -> 15 ;
16 [label="duration <= 34.886\ngini = 0.364\nsamples = 10600\nvalue = [8065, 2535]"] ;
14 -> 16 ;
17 [label="duration <= 33.289\ngini = 0.396\nsamples = 843\nvalue = [614, 229]"] ;
16 -> 17 ;
19 [label="duration <= 30.098\ngini = 0.367\nsamples = 628\nvalue = [476, 152]"] ;
17 -> 19 ;
33 [label="duration <= 29.898\ngini = 0.414\nsamples = 270\nvalue = [191, 79]"] ;
19 -> 33 ;
35 [label="gini = 0.395\nsamples = 244\nvalue = [178, 66]"] ;
33 -> 35 ;
36 [label="browser <= 0.5\ngini = 0.5\nsamples = 26\nvalue = [13, 13]"] ;
33 -> 36 ;
37 [label="gini = 0.375\nsamples = 12\nvalue = [3, 9]"] ;
36 -> 37 ;
38 [label="gini = 0.408\nsamples = 14\nvalue = [10, 4]"] ;
36 -> 38 ;
34 [label="gini = 0.325\nsamples = 358\nvalue = [285, 73]"] ;
19 -> 34 ;
20 [label="duration <= 33.434\ngini = 0.46\nsamples = 215\nvalue = [138, 77]"] ;
17 -> 20 ;
21 [label="gini = 0.415\nsamples = 17\nvalue = [5, 12]"] ;
20 -> 21 ;
22 [label="duration <= 33.688\ngini = 0.441\nsamples = 198\nvalue = [133, 65]"] ;
20 -> 22 ;
23 [label="gini = 0.245\nsamples = 35\nvalue = [30, 5]"] ;
22 -> 23 ;
24 [label="browser <= 0.5\ngini = 0.465\nsamples = 163\nvalue = [103, 60]"] ;
22 -> 24 ;
29 [label="gini = 0.397\nsamples = 77\nvalue = [56, 21]"] ;
24 -> 29 ;
30 [label="duration <= 33.82\ngini = 0.496\nsamples = 86\nvalue = [47, 39]"] ;
24 -> 30 ;
31 [label="gini = 0.391\nsamples = 15\nvalue = [4, 11]"] ;
30 -> 31 ;
32 [label="gini = 0.478\nsamples = 71\nvalue = [43, 28]"] ;
30 -> 32 ;
18 [label="duration <= 98.683\ngini = 0.361\nsamples = 9757\nvalue = [7451, 2306]"] ;
16 -> 18 ;
25 [label="duration <= 98.033\ngini = 0.354\nsamples = 7309\nvalue = [5631, 1678]"] ;
18 -> 25 ;
27 [label="gini = 0.355\nsamples = 7236\nvalue = [5564, 1672]"] ;
25 -> 27 ;
28 [label="gini = 0.151\nsamples = 73\nvalue = [67, 6]"] ;
25 -> 28 ;
26 [label="gini = 0.381\nsamples = 2448\nvalue = [1820, 628]"] ;
18 -> 26 ;
2 [label="duration <= 0.022\ngini = 0.156\nsamples = 8850\nvalue = [752, 8098]"] ;
0 -> 2 [labeldistance=2.5, labelangle=-45, headlabel="False"] ;
3 [label="gini = 0.0\nsamples = 6067\nvalue = [0, 6067]"] ;
2 -> 3 ;
4 [label="device_count <= 4.5\ngini = 0.394\nsamples = 2783\nvalue = [752, 2031]"] ;
2 -> 4 ;
5 [label="source <= 0.5\ngini = 0.38\nsamples = 2690\nvalue = [687, 2003]"] ;
4 -> 5 ;
7 [label="gini = 0.424\nsamples = 1013\nvalue = [309, 704]"] ;
5 -> 7 ;
8 [label="source <= 1.5\ngini = 0.349\nsamples = 1677\nvalue = [378, 1299]"] ;
5 -> 8 ;
9 [label="gini = 0.268\nsamples = 715\nvalue = [114, 601]"] ;
8 -> 9 ;
10 [label="duration <= 118.849\ngini = 0.398\nsamples = 962\nvalue = [264, 698]"] ;
8 -> 10 ;
11 [label="gini = 0.392\nsamples = 944\nvalue = [253, 691]"] ;
10 -> 11 ;
12 [label="gini = 0.475\nsamples = 18\nvalue = [11, 7]"] ;
10 -> 12 ;
6 [label="gini = 0.421\nsamples = 93\nvalue = [65, 28]"] ;
4 -> 6 ;
}